digraph Tree {
node [shape=box, style="filled, rounded", color="black", fontname=helvetica] ;
edge [fontname=helvetica] ;
0 [label="x50 <= -0.207\ngini = 0.5\nsamples = 4800\nvalue = [2465, 2335]\nclass = smiling", fillcolor="#e581390d"] ;
1 [label="y29 <= 0.968\ngini = 0.346\nsamples = 2057\nvalue = [457, 1600]\nclass = not smiling", fillcolor="#399de5b6"] ;
0 -> 1 [labeldistance=2.5, labelangle=45, headlabel="True"] ;
2 [label="y8 <= -1.241\ngini = 0.215\nsamples = 1620\nvalue = [198, 1422]\nclass = not smiling", fillcolor="#399de5db"] ;
1 -> 2 ;
3 [label="y48 <= -0.317\ngini = 0.157\nsamples = 1491\nvalue = [128, 1363]\nclass = not smiling", fillcolor="#399de5e7"] ;
2 -> 3 ;
4 [label="y64 <= -0.094\ngini = 0.493\nsamples = 120\nvalue = [53, 67]\nclass = not smiling", fillcolor="#399de535"] ;
3 -> 4 ;
5 [label="x50 <= -0.259\ngini = 0.455\nsamples = 77\nvalue = [50, 27]\nclass = smiling", fillcolor="#e5813975"] ;
4 -> 5 ;
6 [label="y0 <= 0.899\ngini = 0.298\nsamples = 11\nvalue = [2, 9]\nclass = not smiling", fillcolor="#399de5c6"] ;
5 -> 6 ;
7 [label="gini = 0.0\nsamples = 9\nvalue = [0, 9]\nclass = not smiling", fillcolor="#399de5ff"] ;
6 -> 7 ;
8 [label="gini = 0.0\nsamples = 2\nvalue = [2, 0]\nclass = smiling", fillcolor="#e58139ff"] ;
6 -> 8 ;
9 [label="y63 <= -0.153\ngini = 0.397\nsamples = 66\nvalue = [48, 18]\nclass = smiling", fillcolor="#e581399f"] ;
5 -> 9 ;
10 [label="y1 <= -0.067\ngini = 0.083\nsamples = 23\nvalue = [22, 1]\nclass = smiling", fillcolor="#e58139f3"] ;
9 -> 10 ;
11 [label="gini = 0.0\nsamples = 1\nvalue = [0, 1]\nclass = not smiling", fillcolor="#399de5ff"] ;
10 -> 11 ;
12 [label="gini = 0.0\nsamples = 22\nvalue = [22, 0]\nclass = smiling", fillcolor="#e58139ff"] ;
10 -> 12 ;
13 [label="y57 <= -0.98\ngini = 0.478\nsamples = 43\nvalue = [26, 17]\nclass = smiling", fillcolor="#e5813958"] ;
9 -> 13 ;
14 [label="gini = 0.133\nsamples = 14\nvalue = [13, 1]\nclass = smiling", fillcolor="#e58139eb"] ;
13 -> 14 ;
15 [label="gini = 0.495\nsamples = 29\nvalue = [13, 16]\nclass = not smiling", fillcolor="#399de530"] ;
13 -> 15 ;
16 [label="y18 <= 1.68\ngini = 0.13\nsamples = 43\nvalue = [3, 40]\nclass = not smiling", fillcolor="#399de5ec"] ;
4 -> 16 ;
17 [label="gini = 0.0\nsamples = 39\nvalue = [0, 39]\nclass = not smiling", fillcolor="#399de5ff"] ;
16 -> 17 ;
18 [label="y61 <= -0.144\ngini = 0.375\nsamples = 4\nvalue = [3, 1]\nclass = smiling", fillcolor="#e58139aa"] ;
16 -> 18 ;
19 [label="gini = 0.0\nsamples = 3\nvalue = [3, 0]\nclass = smiling", fillcolor="#e58139ff"] ;
18 -> 19 ;
20 [label="gini = 0.0\nsamples = 1\nvalue = [0, 1]\nclass = not smiling", fillcolor="#399de5ff"] ;
18 -> 20 ;
21 [label="x52 <= 0.195\ngini = 0.103\nsamples = 1371\nvalue = [75, 1296]\nclass = not smiling", fillcolor="#399de5f0"] ;
3 -> 21 ;
22 [label="y53 <= 0.009\ngini = 0.353\nsamples = 153\nvalue = [35, 118]\nclass = not smiling", fillcolor="#399de5b3"] ;
21 -> 22 ;
23 [label="x49 <= -0.567\ngini = 0.489\nsamples = 68\nvalue = [29, 39]\nclass = not smiling", fillcolor="#399de541"] ;
22 -> 23 ;
24 [label="y45 <= 1.549\ngini = 0.185\nsamples = 29\nvalue = [3, 26]\nclass = not smiling", fillcolor="#399de5e2"] ;
23 -> 24 ;
25 [label="gini = 0.074\nsamples = 26\nvalue = [1, 25]\nclass = not smiling", fillcolor="#399de5f5"] ;
24 -> 25 ;
26 [label="gini = 0.444\nsamples = 3\nvalue = [2, 1]\nclass = smiling", fillcolor="#e581397f"] ;
24 -> 26 ;
27 [label="x54 <= 0.778\ngini = 0.444\nsamples = 39\nvalue = [26, 13]\nclass = smiling", fillcolor="#e581397f"] ;
23 -> 27 ;
28 [label="gini = 0.238\nsamples = 29\nvalue = [25, 4]\nclass = smiling", fillcolor="#e58139d6"] ;
27 -> 28 ;
29 [label="gini = 0.18\nsamples = 10\nvalue = [1, 9]\nclass = not smiling", fillcolor="#399de5e3"] ;
27 -> 29 ;
30 [label="y8 <= -1.266\ngini = 0.131\nsamples = 85\nvalue = [6, 79]\nclass = not smiling", fillcolor="#399de5ec"] ;
22 -> 30 ;
31 [label="y8 <= -1.274\ngini = 0.026\nsamples = 75\nvalue = [1, 74]\nclass = not smiling", fillcolor="#399de5fc"] ;
30 -> 31 ;
32 [label="gini = 0.0\nsamples = 70\nvalue = [0, 70]\nclass = not smiling", fillcolor="#399de5ff"] ;
31 -> 32 ;
33 [label="gini = 0.32\nsamples = 5\nvalue = [1, 4]\nclass = not smiling", fillcolor="#399de5bf"] ;
31 -> 33 ;
34 [label="y53 <= 0.104\ngini = 0.5\nsamples = 10\nvalue = [5, 5]\nclass = smiling", fillcolor="#e5813900"] ;
30 -> 34 ;
35 [label="gini = 0.278\nsamples = 6\nvalue = [5, 1]\nclass = smiling", fillcolor="#e58139cc"] ;
34 -> 35 ;
36 [label="gini = 0.0\nsamples = 4\nvalue = [0, 4]\nclass = not smiling", fillcolor="#399de5ff"] ;
34 -> 36 ;
37 [label="y66 <= -0.194\ngini = 0.064\nsamples = 1218\nvalue = [40, 1178]\nclass = not smiling", fillcolor="#399de5f6"] ;
21 -> 37 ;
38 [label="y48 <= -0.188\ngini = 0.049\nsamples = 1161\nvalue = [29, 1132]\nclass = not smiling", fillcolor="#399de5f8"] ;
37 -> 38 ;
39 [label="y1 <= 0.911\ngini = 0.168\nsamples = 195\nvalue = [18, 177]\nclass = not smiling", fillcolor="#399de5e5"] ;
38 -> 39 ;
40 [label="gini = 0.074\nsamples = 182\nvalue = [7, 175]\nclass = not smiling", fillcolor="#399de5f5"] ;
39 -> 40 ;
41 [label="gini = 0.26\nsamples = 13\nvalue = [11, 2]\nclass = smiling", fillcolor="#e58139d1"] ;
39 -> 41 ;
42 [label="x14 <= 0.861\ngini = 0.023\nsamples = 966\nvalue = [11, 955]\nclass = not smiling", fillcolor="#399de5fc"] ;
38 -> 42 ;
43 [label="gini = 0.5\nsamples = 2\nvalue = [1, 1]\nclass = smiling", fillcolor="#e5813900"] ;
42 -> 43 ;
44 [label="gini = 0.021\nsamples = 964\nvalue = [10, 954]\nclass = not smiling", fillcolor="#399de5fc"] ;
42 -> 44 ;
45 [label="y54 <= 0.009\ngini = 0.311\nsamples = 57\nvalue = [11, 46]\nclass = not smiling", fillcolor="#399de5c2"] ;
37 -> 45 ;
46 [label="y9 <= -1.257\ngini = 0.458\nsamples = 31\nvalue = [11, 20]\nclass = not smiling", fillcolor="#399de573"] ;
45 -> 46 ;
47 [label="gini = 0.255\nsamples = 20\nvalue = [3, 17]\nclass = not smiling", fillcolor="#399de5d2"] ;
46 -> 47 ;
48 [label="gini = 0.397\nsamples = 11\nvalue = [8, 3]\nclass = smiling", fillcolor="#e581399f"] ;
46 -> 48 ;
49 [label="gini = 0.0\nsamples = 26\nvalue = [0, 26]\nclass = not smiling", fillcolor="#399de5ff"] ;
45 -> 49 ;
50 [label="x54 <= 0.818\ngini = 0.496\nsamples = 129\nvalue = [70, 59]\nclass = smiling", fillcolor="#e5813928"] ;
2 -> 50 ;
51 [label="x60 <= -0.861\ngini = 0.412\nsamples = 86\nvalue = [61, 25]\nclass = smiling", fillcolor="#e5813996"] ;
50 -> 51 ;
52 [label="x5 <= -1.877\ngini = 0.105\nsamples = 18\nvalue = [1, 17]\nclass = not smiling", fillcolor="#399de5f0"] ;
51 -> 52 ;
53 [label="gini = 0.0\nsamples = 1\nvalue = [1, 0]\nclass = smiling", fillcolor="#e58139ff"] ;
52 -> 53 ;
54 [label="gini = 0.0\nsamples = 17\nvalue = [0, 17]\nclass = not smiling", fillcolor="#399de5ff"] ;
52 -> 54 ;
55 [label="y53 <= 0.093\ngini = 0.208\nsamples = 68\nvalue = [60, 8]\nclass = smiling", fillcolor="#e58139dd"] ;
51 -> 55 ;
56 [label="x49 <= -0.559\ngini = 0.1\nsamples = 57\nvalue = [54, 3]\nclass = smiling", fillcolor="#e58139f1"] ;
55 -> 56 ;
57 [label="x55 <= 0.457\ngini = 0.444\nsamples = 6\nvalue = [4, 2]\nclass = smiling", fillcolor="#e581397f"] ;
56 -> 57 ;
58 [label="gini = 0.0\nsamples = 4\nvalue = [4, 0]\nclass = smiling", fillcolor="#e58139ff"] ;
57 -> 58 ;
59 [label="gini = 0.0\nsamples = 2\nvalue = [0, 2]\nclass = not smiling", fillcolor="#399de5ff"] ;
57 -> 59 ;
60 [label="y24 <= 2.038\ngini = 0.038\nsamples = 51\nvalue = [50, 1]\nclass = smiling", fillcolor="#e58139fa"] ;
56 -> 60 ;
61 [label="gini = 0.5\nsamples = 2\nvalue = [1, 1]\nclass = smiling", fillcolor="#e5813900"] ;
60 -> 61 ;
62 [label="gini = 0.0\nsamples = 49\nvalue = [49, 0]\nclass = smiling", fillcolor="#e58139ff"] ;
60 -> 62 ;
63 [label="y49 <= -0.082\ngini = 0.496\nsamples = 11\nvalue = [6, 5]\nclass = smiling", fillcolor="#e581392a"] ;
55 -> 63 ;
64 [label="gini = 0.0\nsamples = 6\nvalue = [6, 0]\nclass = smiling", fillcolor="#e58139ff"] ;
63 -> 64 ;
65 [label="gini = 0.0\nsamples = 5\nvalue = [0, 5]\nclass = not smiling", fillcolor="#399de5ff"] ;
63 -> 65 ;
66 [label="y64 <= -0.1\ngini = 0.331\nsamples = 43\nvalue = [9, 34]\nclass = not smiling", fillcolor="#399de5bb"] ;
50 -> 66 ;
67 [label="x64 <= 0.794\ngini = 0.408\nsamples = 7\nvalue = [5, 2]\nclass = smiling", fillcolor="#e5813999"] ;
66 -> 67 ;
68 [label="gini = 0.0\nsamples = 5\nvalue = [5, 0]\nclass = smiling", fillcolor="#e58139ff"] ;
67 -> 68 ;
69 [label="gini = 0.0\nsamples = 2\nvalue = [0, 2]\nclass = not smiling", fillcolor="#399de5ff"] ;
67 -> 69 ;
70 [label="y43 <= 1.865\ngini = 0.198\nsamples = 36\nvalue = [4, 32]\nclass = not smiling", fillcolor="#399de5df"] ;
66 -> 70 ;
71 [label="x50 <= -0.255\ngini = 0.114\nsamples = 33\nvalue = [2, 31]\nclass = not smiling", fillcolor="#399de5ef"] ;
70 -> 71 ;
72 [label="gini = 0.0\nsamples = 1\nvalue = [1, 0]\nclass = smiling", fillcolor="#e58139ff"] ;
71 -> 72 ;
73 [label="y57 <= -0.612\ngini = 0.061\nsamples = 32\nvalue = [1, 31]\nclass = not smiling", fillcolor="#399de5f7"] ;
71 -> 73 ;
74 [label="gini = 0.5\nsamples = 2\nvalue = [1, 1]\nclass = smiling", fillcolor="#e5813900"] ;
73 -> 74 ;
75 [label="gini = 0.0\nsamples = 30\nvalue = [0, 30]\nclass = not smiling", fillcolor="#399de5ff"] ;
73 -> 75 ;
76 [label="y31 <= 0.343\ngini = 0.444\nsamples = 3\nvalue = [2, 1]\nclass = smiling", fillcolor="#e581397f"] ;
70 -> 76 ;
77 [label="gini = 0.0\nsamples = 1\nvalue = [0, 1]\nclass = not smiling", fillcolor="#399de5ff"] ;
76 -> 77 ;
78 [label="gini = 0.0\nsamples = 2\nvalue = [2, 0]\nclass = smiling", fillcolor="#e58139ff"] ;
76 -> 78 ;
79 [label="x60 <= -0.721\ngini = 0.483\nsamples = 437\nvalue = [259, 178]\nclass = smiling", fillcolor="#e5813950"] ;
1 -> 79 ;
80 [label="y62 <= -0.149\ngini = 0.487\nsamples = 196\nvalue = [82, 114]\nclass = not smiling", fillcolor="#399de548"] ;
79 -> 80 ;
81 [label="y54 <= -0.122\ngini = 0.414\nsamples = 65\nvalue = [46, 19]\nclass = smiling", fillcolor="#e5813996"] ;
80 -> 81 ;
82 [label="y38 <= 1.35\ngini = 0.193\nsamples = 37\nvalue = [33, 4]\nclass = smiling", fillcolor="#e58139e0"] ;
81 -> 82 ;
83 [label="gini = 0.0\nsamples = 2\nvalue = [0, 2]\nclass = not smiling", fillcolor="#399de5ff"] ;
82 -> 83 ;
84 [label="x1 <= -1.793\ngini = 0.108\nsamples = 35\nvalue = [33, 2]\nclass = smiling", fillcolor="#e58139f0"] ;
82 -> 84 ;
85 [label="y28 <= 1.326\ngini = 0.057\nsamples = 34\nvalue = [33, 1]\nclass = smiling", fillcolor="#e58139f7"] ;
84 -> 85 ;
86 [label="gini = 0.0\nsamples = 31\nvalue = [31, 0]\nclass = smiling", fillcolor="#e58139ff"] ;
85 -> 86 ;
87 [label="gini = 0.444\nsamples = 3\nvalue = [2, 1]\nclass = smiling", fillcolor="#e581397f"] ;
85 -> 87 ;
88 [label="gini = 0.0\nsamples = 1\nvalue = [0, 1]\nclass = not smiling", fillcolor="#399de5ff"] ;
84 -> 88 ;
89 [label="y65 <= -0.13\ngini = 0.497\nsamples = 28\nvalue = [13, 15]\nclass = not smiling", fillcolor="#399de522"] ;
81 -> 89 ;
90 [label="y8 <= -1.286\ngini = 0.388\nsamples = 19\nvalue = [5, 14]\nclass = not smiling", fillcolor="#399de5a4"] ;
89 -> 90 ;
91 [label="y11 <= -0.399\ngini = 0.133\nsamples = 14\nvalue = [1, 13]\nclass = not smiling", fillcolor="#399de5eb"] ;
90 -> 91 ;
92 [label="gini = 0.0\nsamples = 13\nvalue = [0, 13]\nclass = not smiling", fillcolor="#399de5ff"] ;
91 -> 92 ;
93 [label="gini = 0.0\nsamples = 1\nvalue = [1, 0]\nclass = smiling", fillcolor="#e58139ff"] ;
91 -> 93 ;
94 [label="y8 <= -1.22\ngini = 0.32\nsamples = 5\nvalue = [4, 1]\nclass = smiling", fillcolor="#e58139bf"] ;
90 -> 94 ;
95 [label="gini = 0.0\nsamples = 4\nvalue = [4, 0]\nclass = smiling", fillcolor="#e58139ff"] ;
94 -> 95 ;
96 [label="gini = 0.0\nsamples = 1\nvalue = [0, 1]\nclass = not smiling", fillcolor="#399de5ff"] ;
94 -> 96 ;
97 [label="x41 <= -1.062\ngini = 0.198\nsamples = 9\nvalue = [8, 1]\nclass = smiling", fillcolor="#e58139df"] ;
89 -> 97 ;
98 [label="gini = 0.0\nsamples = 8\nvalue = [8, 0]\nclass = smiling", fillcolor="#e58139ff"] ;
97 -> 98 ;
99 [label="gini = 0.0\nsamples = 1\nvalue = [0, 1]\nclass = not smiling", fillcolor="#399de5ff"] ;
97 -> 99 ;
100 [label="x53 <= 0.45\ngini = 0.399\nsamples = 131\nvalue = [36, 95]\nclass = not smiling", fillcolor="#399de59e"] ;
80 -> 100 ;
101 [label="x1 <= -2.669\ngini = 0.486\nsamples = 36\nvalue = [21, 15]\nclass = smiling", fillcolor="#e5813949"] ;
100 -> 101 ;
102 [label="y42 <= 1.671\ngini = 0.278\nsamples = 12\nvalue = [2, 10]\nclass = not smiling", fillcolor="#399de5cc"] ;
101 -> 102 ;
103 [label="gini = 0.0\nsamples = 10\nvalue = [0, 10]\nclass = not smiling", fillcolor="#399de5ff"] ;
102 -> 103 ;
104 [label="gini = 0.0\nsamples = 2\nvalue = [2, 0]\nclass = smiling", fillcolor="#e58139ff"] ;
102 -> 104 ;
105 [label="y31 <= 0.534\ngini = 0.33\nsamples = 24\nvalue = [19, 5]\nclass = smiling", fillcolor="#e58139bc"] ;
101 -> 105 ;
106 [label="x60 <= -0.843\ngini = 0.105\nsamples = 18\nvalue = [17, 1]\nclass = smiling", fillcolor="#e58139f0"] ;
105 -> 106 ;
107 [label="gini = 0.0\nsamples = 1\nvalue = [0, 1]\nclass = not smiling", fillcolor="#399de5ff"] ;
106 -> 107 ;
108 [label="gini = 0.0\nsamples = 17\nvalue = [17, 0]\nclass = smiling", fillcolor="#e58139ff"] ;
106 -> 108 ;
109 [label="y39 <= 1.72\ngini = 0.444\nsamples = 6\nvalue = [2, 4]\nclass = not smiling", fillcolor="#399de57f"] ;
105 -> 109 ;
110 [label="gini = 0.0\nsamples = 4\nvalue = [0, 4]\nclass = not smiling", fillcolor="#399de5ff"] ;
109 -> 110 ;
111 [label="gini = 0.0\nsamples = 2\nvalue = [2, 0]\nclass = smiling", fillcolor="#e58139ff"] ;
109 -> 111 ;
112 [label="y7 <= -1.113\ngini = 0.266\nsamples = 95\nvalue = [15, 80]\nclass = not smiling", fillcolor="#399de5cf"] ;
100 -> 112 ;
113 [label="y60 <= -0.159\ngini = 0.227\nsamples = 92\nvalue = [12, 80]\nclass = not smiling", fillcolor="#399de5d9"] ;
112 -> 113 ;
114 [label="y38 <= 1.553\ngini = 0.476\nsamples = 23\nvalue = [9, 14]\nclass = not smiling", fillcolor="#399de55b"] ;
113 -> 114 ;
115 [label="gini = 0.388\nsamples = 19\nvalue = [5, 14]\nclass = not smiling", fillcolor="#399de5a4"] ;
114 -> 115 ;
116 [label="gini = 0.0\nsamples = 4\nvalue = [4, 0]\nclass = smiling", fillcolor="#e58139ff"] ;
114 -> 116 ;
117 [label="y28 <= 1.345\ngini = 0.083\nsamples = 69\nvalue = [3, 66]\nclass = not smiling", fillcolor="#399de5f3"] ;
113 -> 117 ;
118 [label="gini = 0.0\nsamples = 61\nvalue = [0, 61]\nclass = not smiling", fillcolor="#399de5ff"] ;
117 -> 118 ;
119 [label="gini = 0.469\nsamples = 8\nvalue = [3, 5]\nclass = not smiling", fillcolor="#399de566"] ;
117 -> 119 ;
120 [label="gini = 0.0\nsamples = 3\nvalue = [3, 0]\nclass = smiling", fillcolor="#e58139ff"] ;
112 -> 120 ;
121 [label="x64 <= 0.832\ngini = 0.39\nsamples = 241\nvalue = [177, 64]\nclass = smiling", fillcolor="#e58139a3"] ;
79 -> 121 ;
122 [label="y64 <= 0.111\ngini = 0.31\nsamples = 209\nvalue = [169, 40]\nclass = smiling", fillcolor="#e58139c3"] ;
121 -> 122 ;
123 [label="y48 <= 0.043\ngini = 0.284\nsamples = 204\nvalue = [169, 35]\nclass = smiling", fillcolor="#e58139ca"] ;
122 -> 123 ;
124 [label="y7 <= -1.646\ngini = 0.262\nsamples = 200\nvalue = [169, 31]\nclass = smiling", fillcolor="#e58139d0"] ;
123 -> 124 ;
125 [label="y49 <= -0.198\ngini = 0.375\nsamples = 4\nvalue = [1, 3]\nclass = not smiling", fillcolor="#399de5aa"] ;
124 -> 125 ;
126 [label="gini = 0.0\nsamples = 1\nvalue = [1, 0]\nclass = smiling", fillcolor="#e58139ff"] ;
125 -> 126 ;
127 [label="gini = 0.0\nsamples = 3\nvalue = [0, 3]\nclass = not smiling", fillcolor="#399de5ff"] ;
125 -> 127 ;
128 [label="y26 <= 1.469\ngini = 0.245\nsamples = 196\nvalue = [168, 28]\nclass = smiling", fillcolor="#e58139d4"] ;
124 -> 128 ;
129 [label="gini = 0.0\nsamples = 2\nvalue = [0, 2]\nclass = not smiling", fillcolor="#399de5ff"] ;
128 -> 129 ;
130 [label="gini = 0.232\nsamples = 194\nvalue = [168, 26]\nclass = smiling", fillcolor="#e58139d8"] ;
128 -> 130 ;
131 [label="gini = 0.0\nsamples = 4\nvalue = [0, 4]\nclass = not smiling", fillcolor="#399de5ff"] ;
123 -> 131 ;
132 [label="gini = 0.0\nsamples = 5\nvalue = [0, 5]\nclass = not smiling", fillcolor="#399de5ff"] ;
122 -> 132 ;
133 [label="x20 <= -1.029\ngini = 0.375\nsamples = 32\nvalue = [8, 24]\nclass = not smiling", fillcolor="#399de5aa"] ;
121 -> 133 ;
134 [label="gini = 0.0\nsamples = 3\nvalue = [3, 0]\nclass = smiling", fillcolor="#e58139ff"] ;
133 -> 134 ;
135 [label="x36 <= -0.896\ngini = 0.285\nsamples = 29\nvalue = [5, 24]\nclass = not smiling", fillcolor="#399de5ca"] ;
133 -> 135 ;
136 [label="y30 <= 0.651\ngini = 0.142\nsamples = 26\nvalue = [2, 24]\nclass = not smiling", fillcolor="#399de5ea"] ;
135 -> 136 ;
137 [label="gini = 0.0\nsamples = 1\nvalue = [1, 0]\nclass = smiling", fillcolor="#e58139ff"] ;
136 -> 137 ;
138 [label="y52 <= 0.08\ngini = 0.077\nsamples = 25\nvalue = [1, 24]\nclass = not smiling", fillcolor="#399de5f4"] ;
136 -> 138 ;
139 [label="gini = 0.0\nsamples = 23\nvalue = [0, 23]\nclass = not smiling", fillcolor="#399de5ff"] ;
138 -> 139 ;
140 [label="gini = 0.5\nsamples = 2\nvalue = [1, 1]\nclass = smiling", fillcolor="#e5813900"] ;
138 -> 140 ;
141 [label="gini = 0.0\nsamples = 3\nvalue = [3, 0]\nclass = smiling", fillcolor="#e58139ff"] ;
135 -> 141 ;
142 [label="x53 <= 0.555\ngini = 0.392\nsamples = 2743\nvalue = [2008, 735]\nclass = smiling", fillcolor="#e58139a2"] ;
0 -> 142 [labeldistance=2.5, labelangle=-45, headlabel="False"] ;
143 [label="x49 <= -0.574\ngini = 0.307\nsamples = 2253\nvalue = [1826, 427]\nclass = smiling", fillcolor="#e58139c3"] ;
142 -> 143 ;
144 [label="y60 <= -0.059\ngini = 0.432\nsamples = 127\nvalue = [40, 87]\nclass = not smiling", fillcolor="#399de58a"] ;
143 -> 144 ;
145 [label="x5 <= -1.772\ngini = 0.5\nsamples = 69\nvalue = [34, 35]\nclass = not smiling", fillcolor="#399de507"] ;
144 -> 145 ;
146 [label="x60 <= -0.93\ngini = 0.434\nsamples = 44\nvalue = [30, 14]\nclass = smiling", fillcolor="#e5813988"] ;
145 -> 146 ;
147 [label="y24 <= 1.909\ngini = 0.486\nsamples = 24\nvalue = [10, 14]\nclass = not smiling", fillcolor="#399de549"] ;
146 -> 147 ;
148 [label="gini = 0.0\nsamples = 6\nvalue = [6, 0]\nclass = smiling", fillcolor="#e58139ff"] ;
147 -> 148 ;
149 [label="x45 <= 0.891\ngini = 0.346\nsamples = 18\nvalue = [4, 14]\nclass = not smiling", fillcolor="#399de5b6"] ;
147 -> 149 ;
150 [label="gini = 0.124\nsamples = 15\nvalue = [1, 14]\nclass = not smiling", fillcolor="#399de5ed"] ;
149 -> 150 ;
151 [label="gini = 0.0\nsamples = 3\nvalue = [3, 0]\nclass = smiling", fillcolor="#e58139ff"] ;
149 -> 151 ;
152 [label="gini = 0.0\nsamples = 20\nvalue = [20, 0]\nclass = smiling", fillcolor="#e58139ff"] ;
146 -> 152 ;
153 [label="x49 <= -0.576\ngini = 0.269\nsamples = 25\nvalue = [4, 21]\nclass = not smiling", fillcolor="#399de5ce"] ;
145 -> 153 ;
154 [label="x52 <= 0.139\ngini = 0.095\nsamples = 20\nvalue = [1, 19]\nclass = not smiling", fillcolor="#399de5f2"] ;
153 -> 154 ;
155 [label="gini = 0.0\nsamples = 1\nvalue = [1, 0]\nclass = smiling", fillcolor="#e58139ff"] ;
154 -> 155 ;
156 [label="gini = 0.0\nsamples = 19\nvalue = [0, 19]\nclass = not smiling", fillcolor="#399de5ff"] ;
154 -> 156 ;
157 [label="y14 <= 0.838\ngini = 0.48\nsamples = 5\nvalue = [3, 2]\nclass = smiling", fillcolor="#e5813955"] ;
153 -> 157 ;
158 [label="gini = 0.0\nsamples = 3\nvalue = [3, 0]\nclass = smiling", fillcolor="#e58139ff"] ;
157 -> 158 ;
159 [label="gini = 0.0\nsamples = 2\nvalue = [0, 2]\nclass = not smiling", fillcolor="#399de5ff"] ;
157 -> 159 ;
160 [label="y65 <= -0.149\ngini = 0.185\nsamples = 58\nvalue = [6, 52]\nclass = not smiling", fillcolor="#399de5e2"] ;
144 -> 160 ;
161 [label="y32 <= 0.424\ngini = 0.105\nsamples = 54\nvalue = [3, 51]\nclass = not smiling", fillcolor="#399de5f0"] ;
160 -> 161 ;
162 [label="gini = 0.0\nsamples = 49\nvalue = [0, 49]\nclass = not smiling", fillcolor="#399de5ff"] ;
161 -> 162 ;
163 [label="y14 <= 0.37\ngini = 0.48\nsamples = 5\nvalue = [3, 2]\nclass = smiling", fillcolor="#e5813955"] ;
161 -> 163 ;
164 [label="gini = 0.0\nsamples = 2\nvalue = [0, 2]\nclass = not smiling", fillcolor="#399de5ff"] ;
163 -> 164 ;
165 [label="gini = 0.0\nsamples = 3\nvalue = [3, 0]\nclass = smiling", fillcolor="#e58139ff"] ;
163 -> 165 ;
166 [label="x22 <= 0.728\ngini = 0.375\nsamples = 4\nvalue = [3, 1]\nclass = smiling", fillcolor="#e58139aa"] ;
160 -> 166 ;
167 [label="gini = 0.0\nsamples = 3\nvalue = [3, 0]\nclass = smiling", fillcolor="#e58139ff"] ;
166 -> 167 ;
168 [label="gini = 0.0\nsamples = 1\nvalue = [0, 1]\nclass = not smiling", fillcolor="#399de5ff"] ;
166 -> 168 ;
169 [label="y48 <= -0.086\ngini = 0.269\nsamples = 2126\nvalue = [1786, 340]\nclass = smiling", fillcolor="#e58139ce"] ;
143 -> 169 ;
170 [label="y7 <= -1.239\ngini = 0.157\nsamples = 1307\nvalue = [1195, 112]\nclass = smiling", fillcolor="#e58139e7"] ;
169 -> 170 ;
171 [label="y48 <= -0.205\ngini = 0.235\nsamples = 639\nvalue = [552, 87]\nclass = smiling", fillcolor="#e58139d7"] ;
170 -> 171 ;
172 [label="y30 <= 0.565\ngini = 0.114\nsamples = 428\nvalue = [402, 26]\nclass = smiling", fillcolor="#e58139ef"] ;
171 -> 172 ;
173 [label="x17 <= -2.054\ngini = 0.492\nsamples = 16\nvalue = [7, 9]\nclass = not smiling", fillcolor="#399de539"] ;
172 -> 173 ;
174 [label="gini = 0.0\nsamples = 7\nvalue = [0, 7]\nclass = not smiling", fillcolor="#399de5ff"] ;
173 -> 174 ;
175 [label="gini = 0.346\nsamples = 9\nvalue = [7, 2]\nclass = smiling", fillcolor="#e58139b6"] ;
173 -> 175 ;
176 [label="x66 <= 0.292\ngini = 0.079\nsamples = 412\nvalue = [395, 17]\nclass = smiling", fillcolor="#e58139f4"] ;
172 -> 176 ;
177 [label="gini = 0.075\nsamples = 411\nvalue = [395, 16]\nclass = smiling", fillcolor="#e58139f5"] ;
176 -> 177 ;
178 [label="gini = 0.0\nsamples = 1\nvalue = [0, 1]\nclass = not smiling", fillcolor="#399de5ff"] ;
176 -> 178 ;
179 [label="y29 <= 0.982\ngini = 0.411\nsamples = 211\nvalue = [150, 61]\nclass = smiling", fillcolor="#e5813997"] ;
171 -> 179 ;
180 [label="x50 <= -0.18\ngini = 0.497\nsamples = 80\nvalue = [37, 43]\nclass = not smiling", fillcolor="#399de524"] ;
179 -> 180 ;
181 [label="gini = 0.448\nsamples = 59\nvalue = [20, 39]\nclass = not smiling", fillcolor="#399de57c"] ;
180 -> 181 ;
182 [label="gini = 0.308\nsamples = 21\nvalue = [17, 4]\nclass = smiling", fillcolor="#e58139c3"] ;
180 -> 182 ;
183 [label="x64 <= 0.72\ngini = 0.237\nsamples = 131\nvalue = [113, 18]\nclass = smiling", fillcolor="#e58139d6"] ;
179 -> 183 ;
184 [label="gini = 0.137\nsamples = 108\nvalue = [100, 8]\nclass = smiling", fillcolor="#e58139eb"] ;
183 -> 184 ;
185 [label="gini = 0.491\nsamples = 23\nvalue = [13, 10]\nclass = smiling", fillcolor="#e581393b"] ;
183 -> 185 ;
186 [label="x18 <= -2.639\ngini = 0.072\nsamples = 668\nvalue = [643, 25]\nclass = smiling", fillcolor="#e58139f5"] ;
170 -> 186 ;
187 [label="gini = 0.0\nsamples = 1\nvalue = [0, 1]\nclass = not smiling", fillcolor="#399de5ff"] ;
186 -> 187 ;
188 [label="x53 <= 0.509\ngini = 0.069\nsamples = 667\nvalue = [643, 24]\nclass = smiling", fillcolor="#e58139f5"] ;
186 -> 188 ;
189 [label="y33 <= 0.232\ngini = 0.031\nsamples = 513\nvalue = [505, 8]\nclass = smiling", fillcolor="#e58139fb"] ;
188 -> 189 ;
190 [label="gini = 0.266\nsamples = 19\nvalue = [16, 3]\nclass = smiling", fillcolor="#e58139cf"] ;
189 -> 190 ;
191 [label="gini = 0.02\nsamples = 494\nvalue = [489, 5]\nclass = smiling", fillcolor="#e58139fc"] ;
189 -> 191 ;
192 [label="x3 <= -1.627\ngini = 0.186\nsamples = 154\nvalue = [138, 16]\nclass = smiling", fillcolor="#e58139e1"] ;
188 -> 192 ;
193 [label="gini = 0.494\nsamples = 9\nvalue = [5, 4]\nclass = smiling", fillcolor="#e5813933"] ;
192 -> 193 ;
194 [label="gini = 0.152\nsamples = 145\nvalue = [133, 12]\nclass = smiling", fillcolor="#e58139e8"] ;
192 -> 194 ;
195 [label="y7 <= -1.167\ngini = 0.402\nsamples = 819\nvalue = [591, 228]\nclass = smiling", fillcolor="#e581399d"] ;
169 -> 195 ;
196 [label="y32 <= 0.402\ngini = 0.497\nsamples = 208\nvalue = [96, 112]\nclass = not smiling", fillcolor="#399de524"] ;
195 -> 196 ;
197 [label="y64 <= -0.065\ngini = 0.344\nsamples = 104\nvalue = [23, 81]\nclass = not smiling", fillcolor="#399de5b7"] ;
196 -> 197 ;
198 [label="y67 <= -0.197\ngini = 0.486\nsamples = 48\nvalue = [20, 28]\nclass = not smiling", fillcolor="#399de549"] ;
197 -> 198 ;
199 [label="gini = 0.293\nsamples = 28\nvalue = [5, 23]\nclass = not smiling", fillcolor="#399de5c8"] ;
198 -> 199 ;
200 [label="gini = 0.375\nsamples = 20\nvalue = [15, 5]\nclass = smiling", fillcolor="#e58139aa"] ;
198 -> 200 ;
201 [label="x32 <= -0.36\ngini = 0.101\nsamples = 56\nvalue = [3, 53]\nclass = not smiling", fillcolor="#399de5f1"] ;
197 -> 201 ;
202 [label="gini = 0.0\nsamples = 1\nvalue = [1, 0]\nclass = smiling", fillcolor="#e58139ff"] ;
201 -> 202 ;
203 [label="gini = 0.07\nsamples = 55\nvalue = [2, 53]\nclass = not smiling", fillcolor="#399de5f5"] ;
201 -> 203 ;
204 [label="y64 <= -0.036\ngini = 0.418\nsamples = 104\nvalue = [73, 31]\nclass = smiling", fillcolor="#e5813993"] ;
196 -> 204 ;
205 [label="y48 <= 0.05\ngini = 0.269\nsamples = 75\nvalue = [63, 12]\nclass = smiling", fillcolor="#e58139ce"] ;
204 -> 205 ;
206 [label="gini = 0.18\nsamples = 70\nvalue = [63, 7]\nclass = smiling", fillcolor="#e58139e3"] ;
205 -> 206 ;
207 [label="gini = 0.0\nsamples = 5\nvalue = [0, 5]\nclass = not smiling", fillcolor="#399de5ff"] ;
205 -> 207 ;
208 [label="y12 <= -0.179\ngini = 0.452\nsamples = 29\nvalue = [10, 19]\nclass = not smiling", fillcolor="#399de579"] ;
204 -> 208 ;
209 [label="gini = 0.0\nsamples = 13\nvalue = [0, 13]\nclass = not smiling", fillcolor="#399de5ff"] ;
208 -> 209 ;
210 [label="gini = 0.469\nsamples = 16\nvalue = [10, 6]\nclass = smiling", fillcolor="#e5813966"] ;
208 -> 210 ;
211 [label="y48 <= 0.013\ngini = 0.308\nsamples = 611\nvalue = [495, 116]\nclass = smiling", fillcolor="#e58139c3"] ;
195 -> 211 ;
212 [label="y18 <= 2.016\ngini = 0.169\nsamples = 321\nvalue = [291, 30]\nclass = smiling", fillcolor="#e58139e5"] ;
211 -> 212 ;
213 [label="y61 <= -0.101\ngini = 0.375\nsamples = 8\nvalue = [2, 6]\nclass = not smiling", fillcolor="#399de5aa"] ;
212 -> 213 ;
214 [label="gini = 0.0\nsamples = 6\nvalue = [0, 6]\nclass = not smiling", fillcolor="#399de5ff"] ;
213 -> 214 ;
215 [label="gini = 0.0\nsamples = 2\nvalue = [2, 0]\nclass = smiling", fillcolor="#e58139ff"] ;
213 -> 215 ;
216 [label="y54 <= -0.025\ngini = 0.142\nsamples = 313\nvalue = [289, 24]\nclass = smiling", fillcolor="#e58139ea"] ;
212 -> 216 ;
217 [label="gini = 0.052\nsamples = 225\nvalue = [219, 6]\nclass = smiling", fillcolor="#e58139f8"] ;
216 -> 217 ;
218 [label="gini = 0.325\nsamples = 88\nvalue = [70, 18]\nclass = smiling", fillcolor="#e58139bd"] ;
216 -> 218 ;
219 [label="y7 <= -0.925\ngini = 0.417\nsamples = 290\nvalue = [204, 86]\nclass = smiling", fillcolor="#e5813994"] ;
211 -> 219 ;
220 [label="y48 <= 0.174\ngini = 0.487\nsamples = 188\nvalue = [109, 79]\nclass = smiling", fillcolor="#e5813946"] ;
219 -> 220 ;
221 [label="gini = 0.456\nsamples = 165\nvalue = [107, 58]\nclass = smiling", fillcolor="#e5813975"] ;
220 -> 221 ;
222 [label="gini = 0.159\nsamples = 23\nvalue = [2, 21]\nclass = not smiling", fillcolor="#399de5e7"] ;
220 -> 222 ;
223 [label="y8 <= -1.129\ngini = 0.128\nsamples = 102\nvalue = [95, 7]\nclass = smiling", fillcolor="#e58139ec"] ;
219 -> 223 ;
224 [label="gini = 0.494\nsamples = 9\nvalue = [5, 4]\nclass = smiling", fillcolor="#e5813933"] ;
223 -> 224 ;
225 [label="gini = 0.062\nsamples = 93\nvalue = [90, 3]\nclass = smiling", fillcolor="#e58139f6"] ;
223 -> 225 ;
226 [label="y48 <= -0.153\ngini = 0.467\nsamples = 490\nvalue = [182, 308]\nclass = not smiling", fillcolor="#399de568"] ;
142 -> 226 ;
227 [label="y53 <= 0.079\ngini = 0.473\nsamples = 203\nvalue = [125, 78]\nclass = smiling", fillcolor="#e5813960"] ;
226 -> 227 ;
228 [label="x64 <= 0.997\ngini = 0.405\nsamples = 163\nvalue = [117, 46]\nclass = smiling", fillcolor="#e581399b"] ;
227 -> 228 ;
229 [label="x60 <= -0.659\ngini = 0.322\nsamples = 139\nvalue = [111, 28]\nclass = smiling", fillcolor="#e58139bf"] ;
228 -> 229 ;
230 [label="y54 <= -0.43\ngini = 0.18\nsamples = 10\nvalue = [1, 9]\nclass = not smiling", fillcolor="#399de5e3"] ;
229 -> 230 ;
231 [label="gini = 0.0\nsamples = 1\nvalue = [1, 0]\nclass = smiling", fillcolor="#e58139ff"] ;
230 -> 231 ;
232 [label="gini = 0.0\nsamples = 9\nvalue = [0, 9]\nclass = not smiling", fillcolor="#399de5ff"] ;
230 -> 232 ;
233 [label="y62 <= -0.111\ngini = 0.251\nsamples = 129\nvalue = [110, 19]\nclass = smiling", fillcolor="#e58139d3"] ;
229 -> 233 ;
234 [label="x14 <= 3.4\ngini = 0.185\nsamples = 116\nvalue = [104, 12]\nclass = smiling", fillcolor="#e58139e2"] ;
233 -> 234 ;
235 [label="gini = 0.16\nsamples = 114\nvalue = [104, 10]\nclass = smiling", fillcolor="#e58139e6"] ;
234 -> 235 ;
236 [label="gini = 0.0\nsamples = 2\nvalue = [0, 2]\nclass = not smiling", fillcolor="#399de5ff"] ;
234 -> 236 ;
237 [label="y62 <= -0.089\ngini = 0.497\nsamples = 13\nvalue = [6, 7]\nclass = not smiling", fillcolor="#399de524"] ;
233 -> 237 ;
238 [label="gini = 0.346\nsamples = 9\nvalue = [2, 7]\nclass = not smiling", fillcolor="#399de5b6"] ;
237 -> 238 ;
239 [label="gini = 0.0\nsamples = 4\nvalue = [4, 0]\nclass = smiling", fillcolor="#e58139ff"] ;
237 -> 239 ;
240 [label="y22 <= 1.857\ngini = 0.375\nsamples = 24\nvalue = [6, 18]\nclass = not smiling", fillcolor="#399de5aa"] ;
228 -> 240 ;
241 [label="x23 <= 1.124\ngini = 0.278\nsamples = 6\nvalue = [5, 1]\nclass = smiling", fillcolor="#e58139cc"] ;
240 -> 241 ;
242 [label="gini = 0.0\nsamples = 5\nvalue = [5, 0]\nclass = smiling", fillcolor="#e58139ff"] ;
241 -> 242 ;
243 [label="gini = 0.0\nsamples = 1\nvalue = [0, 1]\nclass = not smiling", fillcolor="#399de5ff"] ;
241 -> 243 ;
244 [label="y33 <= 0.383\ngini = 0.105\nsamples = 18\nvalue = [1, 17]\nclass = not smiling", fillcolor="#399de5f0"] ;
240 -> 244 ;
245 [label="gini = 0.0\nsamples = 17\nvalue = [0, 17]\nclass = not smiling", fillcolor="#399de5ff"] ;
244 -> 245 ;
246 [label="gini = 0.0\nsamples = 1\nvalue = [1, 0]\nclass = smiling", fillcolor="#e58139ff"] ;
244 -> 246 ;
247 [label="x61 <= -0.082\ngini = 0.32\nsamples = 40\nvalue = [8, 32]\nclass = not smiling", fillcolor="#399de5bf"] ;
227 -> 247 ;
248 [label="x55 <= 0.676\ngini = 0.157\nsamples = 35\nvalue = [3, 32]\nclass = not smiling", fillcolor="#399de5e7"] ;
247 -> 248 ;
249 [label="gini = 0.0\nsamples = 2\nvalue = [2, 0]\nclass = smiling", fillcolor="#e58139ff"] ;
248 -> 249 ;
250 [label="y62 <= -0.085\ngini = 0.059\nsamples = 33\nvalue = [1, 32]\nclass = not smiling", fillcolor="#399de5f7"] ;
248 -> 250 ;
251 [label="gini = 0.0\nsamples = 30\nvalue = [0, 30]\nclass = not smiling", fillcolor="#399de5ff"] ;
250 -> 251 ;
252 [label="x59 <= -0.349\ngini = 0.444\nsamples = 3\nvalue = [1, 2]\nclass = not smiling", fillcolor="#399de57f"] ;
250 -> 252 ;
253 [label="gini = 0.0\nsamples = 2\nvalue = [0, 2]\nclass = not smiling", fillcolor="#399de5ff"] ;
252 -> 253 ;
254 [label="gini = 0.0\nsamples = 1\nvalue = [1, 0]\nclass = smiling", fillcolor="#e58139ff"] ;
252 -> 254 ;
255 [label="gini = 0.0\nsamples = 5\nvalue = [5, 0]\nclass = smiling", fillcolor="#e58139ff"] ;
247 -> 255 ;
256 [label="x3 <= -0.903\ngini = 0.318\nsamples = 287\nvalue = [57, 230]\nclass = not smiling", fillcolor="#399de5c0"] ;
226 -> 256 ;
257 [label="y9 <= -0.991\ngini = 0.23\nsamples = 241\nvalue = [32, 209]\nclass = not smiling", fillcolor="#399de5d8"] ;
256 -> 257 ;
258 [label="x50 <= -0.179\ngini = 0.208\nsamples = 237\nvalue = [28, 209]\nclass = not smiling", fillcolor="#399de5dd"] ;
257 -> 258 ;
259 [label="y21 <= 2.045\ngini = 0.112\nsamples = 168\nvalue = [10, 158]\nclass = not smiling", fillcolor="#399de5ef"] ;
258 -> 259 ;
260 [label="y58 <= -0.803\ngini = 0.082\nsamples = 163\nvalue = [7, 156]\nclass = not smiling", fillcolor="#399de5f4"] ;
259 -> 260 ;
261 [label="gini = 0.444\nsamples = 3\nvalue = [2, 1]\nclass = smiling", fillcolor="#e581397f"] ;
260 -> 261 ;
262 [label="gini = 0.061\nsamples = 160\nvalue = [5, 155]\nclass = not smiling", fillcolor="#399de5f7"] ;
260 -> 262 ;
263 [label="y34 <= 0.275\ngini = 0.48\nsamples = 5\nvalue = [3, 2]\nclass = smiling", fillcolor="#e5813955"] ;
259 -> 263 ;
264 [label="gini = 0.0\nsamples = 2\nvalue = [0, 2]\nclass = not smiling", fillcolor="#399de5ff"] ;
263 -> 264 ;
265 [label="gini = 0.0\nsamples = 3\nvalue = [3, 0]\nclass = smiling", fillcolor="#e58139ff"] ;
263 -> 265 ;
266 [label="y32 <= 0.416\ngini = 0.386\nsamples = 69\nvalue = [18, 51]\nclass = not smiling", fillcolor="#399de5a5"] ;
258 -> 266 ;
267 [label="y48 <= -0.076\ngini = 0.324\nsamples = 64\nvalue = [13, 51]\nclass = not smiling", fillcolor="#399de5be"] ;
266 -> 267 ;
268 [label="gini = 0.496\nsamples = 22\nvalue = [10, 12]\nclass = not smiling", fillcolor="#399de52a"] ;
267 -> 268 ;
269 [label="gini = 0.133\nsamples = 42\nvalue = [3, 39]\nclass = not smiling", fillcolor="#399de5eb"] ;
267 -> 269 ;
270 [label="gini = 0.0\nsamples = 5\nvalue = [5, 0]\nclass = smiling", fillcolor="#e58139ff"] ;
266 -> 270 ;
271 [label="gini = 0.0\nsamples = 4\nvalue = [4, 0]\nclass = smiling", fillcolor="#e58139ff"] ;
257 -> 271 ;
272 [label="y38 <= 1.711\ngini = 0.496\nsamples = 46\nvalue = [25, 21]\nclass = smiling", fillcolor="#e5813929"] ;
256 -> 272 ;
273 [label="y24 <= 2.086\ngini = 0.393\nsamples = 26\nvalue = [7, 19]\nclass = not smiling", fillcolor="#399de5a1"] ;
272 -> 273 ;
274 [label="y45 <= 1.266\ngini = 0.498\nsamples = 15\nvalue = [7, 8]\nclass = not smiling", fillcolor="#399de520"] ;
273 -> 274 ;
275 [label="gini = 0.0\nsamples = 8\nvalue = [0, 8]\nclass = not smiling", fillcolor="#399de5ff"] ;
274 -> 275 ;
276 [label="gini = 0.0\nsamples = 7\nvalue = [7, 0]\nclass = smiling", fillcolor="#e58139ff"] ;
274 -> 276 ;
277 [label="gini = 0.0\nsamples = 11\nvalue = [0, 11]\nclass = not smiling", fillcolor="#399de5ff"] ;
273 -> 277 ;
278 [label="x36 <= -0.175\ngini = 0.18\nsamples = 20\nvalue = [18, 2]\nclass = smiling", fillcolor="#e58139e3"] ;
272 -> 278 ;
279 [label="x2 <= -1.051\ngini = 0.1\nsamples = 19\nvalue = [18, 1]\nclass = smiling", fillcolor="#e58139f1"] ;
278 -> 279 ;
280 [label="gini = 0.0\nsamples = 1\nvalue = [0, 1]\nclass = not smiling", fillcolor="#399de5ff"] ;
279 -> 280 ;
281 [label="gini = 0.0\nsamples = 18\nvalue = [18, 0]\nclass = smiling", fillcolor="#e58139ff"] ;
279 -> 281 ;
282 [label="gini = 0.0\nsamples = 1\nvalue = [0, 1]\nclass = not smiling", fillcolor="#399de5ff"] ;
278 -> 282 ;
}